digraph Tree {
node [shape=box] ;
0 [label="X[0] <= 0.412\nentropy = 0.794\nsamples = 9599\nvalue = [7302, 2297]"] ;
1 [label="X[2] <= 0.1\nentropy = 0.968\nsamples = 2692\nvalue = [1063, 1629]"] ;
0 -> 1 [labeldistance=2.5, labelangle=45, headlabel="True"] ;
2 [label="X[1] <= 0.336\nentropy = 0.542\nsamples = 1141\nvalue = [142, 999]"] ;
1 -> 2 ;
3 [label="X[1] <= 0.133\nentropy = 0.293\nsamples = 1048\nvalue = [54, 994]"] ;
2 -> 3 ;
4 [label="entropy = 0.0\nsamples = 24\nvalue = [24, 0]"] ;
3 -> 4 ;
5 [label="X[3] <= 0.322\nentropy = 0.191\nsamples = 1024\nvalue = [30, 994]"] ;
3 -> 5 ;
6 [label="X[3] <= 0.136\nentropy = 0.129\nsamples = 1007\nvalue = [18, 989]"] ;
5 -> 6 ;
7 [label="entropy = 0.0\nsamples = 9\nvalue = [9, 0]"] ;
6 -> 7 ;
8 [label="X[0] <= 0.275\nentropy = 0.074\nsamples = 998\nvalue = [9, 989]"] ;
6 -> 8 ;
9 [label="X[3] <= 0.206\nentropy = 0.918\nsamples = 9\nvalue = [6, 3]"] ;
8 -> 9 ;
10 [label="entropy = 0.0\nsamples = 3\nvalue = [0, 3]"] ;
9 -> 10 ;
11 [label="entropy = 0.0\nsamples = 6\nvalue = [6, 0]"] ;
9 -> 11 ;
12 [label="X[9] <= 0.5\nentropy = 0.03\nsamples = 989\nvalue = [3, 986]"] ;
8 -> 12 ;
13 [label="entropy = 0.0\nsamples = 956\nvalue = [0, 956]"] ;
12 -> 13 ;
14 [label="X[0] <= 0.313\nentropy = 0.439\nsamples = 33\nvalue = [3, 30]"] ;
12 -> 14 ;
15 [label="X[1] <= 0.219\nentropy = 0.918\nsamples = 9\nvalue = [3, 6]"] ;
14 -> 15 ;
16 [label="entropy = 0.592\nsamples = 7\nvalue = [1, 6]"] ;
15 -> 16 ;
17 [label="entropy = 0.0\nsamples = 2\nvalue = [2, 0]"] ;
15 -> 17 ;
18 [label="entropy = 0.0\nsamples = 24\nvalue = [0, 24]"] ;
14 -> 18 ;
19 [label="X[3] <= 0.675\nentropy = 0.874\nsamples = 17\nvalue = [12, 5]"] ;
5 -> 19 ;
20 [label="entropy = 0.0\nsamples = 9\nvalue = [9, 0]"] ;
19 -> 20 ;
21 [label="X[3] <= 0.755\nentropy = 0.954\nsamples = 8\nvalue = [3, 5]"] ;
19 -> 21 ;
22 [label="entropy = 0.0\nsamples = 5\nvalue = [0, 5]"] ;
21 -> 22 ;
23 [label="entropy = 0.0\nsamples = 3\nvalue = [3, 0]"] ;
21 -> 23 ;
24 [label="X[3] <= 0.855\nentropy = 0.302\nsamples = 93\nvalue = [88, 5]"] ;
2 -> 24 ;
25 [label="X[3] <= 0.259\nentropy = 0.155\nsamples = 89\nvalue = [87, 2]"] ;
24 -> 25 ;
26 [label="X[3] <= 0.252\nentropy = 0.353\nsamples = 30\nvalue = [28, 2]"] ;
25 -> 26 ;
27 [label="entropy = 0.0\nsamples = 26\nvalue = [26, 0]"] ;
26 -> 27 ;
28 [label="X[0] <= 0.324\nentropy = 1.0\nsamples = 4\nvalue = [2, 2]"] ;
26 -> 28 ;
29 [label="entropy = 0.0\nsamples = 2\nvalue = [0, 2]"] ;
28 -> 29 ;
30 [label="entropy = 0.0\nsamples = 2\nvalue = [2, 0]"] ;
28 -> 30 ;
31 [label="entropy = 0.0\nsamples = 59\nvalue = [59, 0]"] ;
25 -> 31 ;
32 [label="X[1] <= 0.625\nentropy = 0.811\nsamples = 4\nvalue = [1, 3]"] ;
24 -> 32 ;
33 [label="entropy = 0.0\nsamples = 3\nvalue = [0, 3]"] ;
32 -> 33 ;
34 [label="entropy = 0.0\nsamples = 1\nvalue = [1, 0]"] ;
32 -> 34 ;
35 [label="X[0] <= 0.027\nentropy = 0.974\nsamples = 1551\nvalue = [921, 630]"] ;
1 -> 35 ;
36 [label="entropy = 0.0\nsamples = 551\nvalue = [0, 551]"] ;
35 -> 36 ;
37 [label="X[2] <= 0.9\nentropy = 0.399\nsamples = 1000\nvalue = [921, 79]"] ;
35 -> 37 ;
38 [label="X[3] <= 0.902\nentropy = 0.354\nsamples = 987\nvalue = [921, 66]"] ;
37 -> 38 ;
39 [label="X[1] <= 0.992\nentropy = 0.332\nsamples = 981\nvalue = [921, 60]"] ;
38 -> 39 ;
40 [label="X[0] <= 0.203\nentropy = 0.306\nsamples = 969\nvalue = [916, 53]"] ;
39 -> 40 ;
41 [label="X[0] <= 0.126\nentropy = 0.196\nsamples = 560\nvalue = [543, 17]"] ;
40 -> 41 ;
42 [label="X[1] <= 0.758\nentropy = 0.266\nsamples = 353\nvalue = [337, 16]"] ;
41 -> 42 ;
43 [label="X[3] <= 0.371\nentropy = 0.327\nsamples = 267\nvalue = [251, 16]"] ;
42 -> 43 ;
44 [label="entropy = 0.527\nsamples = 84\nvalue = [74, 10]"] ;
43 -> 44 ;
45 [label="entropy = 0.208\nsamples = 183\nvalue = [177, 6]"] ;
43 -> 45 ;
46 [label="entropy = 0.0\nsamples = 86\nvalue = [86, 0]"] ;
42 -> 46 ;
47 [label="X[1] <= 0.977\nentropy = 0.044\nsamples = 207\nvalue = [206, 1]"] ;
41 -> 47 ;
48 [label="entropy = 0.0\nsamples = 203\nvalue = [203, 0]"] ;
47 -> 48 ;
49 [label="X[3] <= 0.458\nentropy = 0.811\nsamples = 4\nvalue = [3, 1]"] ;
47 -> 49 ;
50 [label="entropy = 0.0\nsamples = 3\nvalue = [3, 0]"] ;
49 -> 50 ;
51 [label="entropy = 0.0\nsamples = 1\nvalue = [0, 1]"] ;
49 -> 51 ;
52 [label="X[3] <= 0.166\nentropy = 0.43\nsamples = 409\nvalue = [373, 36]"] ;
40 -> 52 ;
53 [label="entropy = 0.0\nsamples = 85\nvalue = [85, 0]"] ;
52 -> 53 ;
54 [label="X[0] <= 0.28\nentropy = 0.503\nsamples = 324\nvalue = [288, 36]"] ;
52 -> 54 ;
55 [label="X[2] <= 0.3\nentropy = 0.687\nsamples = 131\nvalue = [107, 24]"] ;
54 -> 55 ;
56 [label="entropy = 0.0\nsamples = 42\nvalue = [42, 0]"] ;
55 -> 56 ;
57 [label="entropy = 0.841\nsamples = 89\nvalue = [65, 24]"] ;
55 -> 57 ;
58 [label="X[1] <= 0.258\nentropy = 0.336\nsamples = 193\nvalue = [181, 12]"] ;
54 -> 58 ;
59 [label="entropy = 0.0\nsamples = 64\nvalue = [64, 0]"] ;
58 -> 59 ;
60 [label="entropy = 0.446\nsamples = 129\nvalue = [117, 12]"] ;
58 -> 60 ;
61 [label="X[4] <= 0.312\nentropy = 0.98\nsamples = 12\nvalue = [5, 7]"] ;
39 -> 61 ;
62 [label="X[2] <= 0.7\nentropy = 0.764\nsamples = 9\nvalue = [2, 7]"] ;
61 -> 62 ;
63 [label="entropy = 0.0\nsamples = 7\nvalue = [0, 7]"] ;
62 -> 63 ;
64 [label="entropy = 0.0\nsamples = 2\nvalue = [2, 0]"] ;
62 -> 64 ;
65 [label="entropy = 0.0\nsamples = 3\nvalue = [3, 0]"] ;
61 -> 65 ;
66 [label="entropy = 0.0\nsamples = 6\nvalue = [0, 6]"] ;
38 -> 66 ;
67 [label="entropy = 0.0\nsamples = 13\nvalue = [0, 13]"] ;
37 -> 67 ;
68 [label="X[4] <= 0.312\nentropy = 0.458\nsamples = 6907\nvalue = [6239, 668]"] ;
0 -> 68 [labeldistance=2.5, labelangle=-45, headlabel="False"] ;
69 [label="X[3] <= 0.909\nentropy = 0.105\nsamples = 5594\nvalue = [5517, 77]"] ;
68 -> 69 ;
70 [label="X[2] <= 0.7\nentropy = 0.098\nsamples = 5588\nvalue = [5517, 71]"] ;
69 -> 70 ;
71 [label="X[4] <= 0.188\nentropy = 0.085\nsamples = 5484\nvalue = [5426, 58]"] ;
70 -> 71 ;
72 [label="X[2] <= 0.1\nentropy = 0.059\nsamples = 4638\nvalue = [4606, 32]"] ;
71 -> 72 ;
73 [label="X[3] <= 0.334\nentropy = 0.28\nsamples = 268\nvalue = [255, 13]"] ;
72 -> 73 ;
74 [label="entropy = 0.0\nsamples = 92\nvalue = [92, 0]"] ;
73 -> 74 ;
75 [label="X[0] <= 0.841\nentropy = 0.38\nsamples = 176\nvalue = [163, 13]"] ;
73 -> 75 ;
76 [label="X[0] <= 0.566\nentropy = 0.448\nsamples = 139\nvalue = [126, 13]"] ;
75 -> 76 ;
77 [label="X[0] <= 0.434\nentropy = 0.131\nsamples = 55\nvalue = [54, 1]"] ;
76 -> 77 ;
78 [label="entropy = 1.0\nsamples = 2\nvalue = [1, 1]"] ;
77 -> 78 ;
79 [label="entropy = 0.0\nsamples = 53\nvalue = [53, 0]"] ;
77 -> 79 ;
80 [label="X[3] <= 0.731\nentropy = 0.592\nsamples = 84\nvalue = [72, 12]"] ;
76 -> 80 ;
81 [label="entropy = 0.404\nsamples = 62\nvalue = [57, 5]"] ;
80 -> 81 ;
82 [label="entropy = 0.902\nsamples = 22\nvalue = [15, 7]"] ;
80 -> 82 ;
83 [label="entropy = 0.0\nsamples = 37\nvalue = [37, 0]"] ;
75 -> 83 ;
84 [label="X[0] <= 0.885\nentropy = 0.04\nsamples = 4370\nvalue = [4351, 19]"] ;
72 -> 84 ;
85 [label="X[5] <= 0.5\nentropy = 0.049\nsamples = 3502\nvalue = [3483, 19]"] ;
84 -> 85 ;
86 [label="entropy = 0.0\nsamples = 584\nvalue = [584, 0]"] ;
85 -> 86 ;
87 [label="X[1] <= 0.711\nentropy = 0.057\nsamples = 2918\nvalue = [2899, 19]"] ;
85 -> 87 ;
88 [label="X[1] <= 0.273\nentropy = 0.072\nsamples = 1951\nvalue = [1934, 17]"] ;
87 -> 88 ;
89 [label="entropy = 0.0\nsamples = 379\nvalue = [379, 0]"] ;
88 -> 89 ;
90 [label="entropy = 0.086\nsamples = 1572\nvalue = [1555, 17]"] ;
88 -> 90 ;
91 [label="X[0] <= 0.434\nentropy = 0.021\nsamples = 967\nvalue = [965, 2]"] ;
87 -> 91 ;
92 [label="entropy = 0.286\nsamples = 20\nvalue = [19, 1]"] ;
91 -> 92 ;
93 [label="entropy = 0.012\nsamples = 947\nvalue = [946, 1]"] ;
91 -> 93 ;
94 [label="entropy = 0.0\nsamples = 868\nvalue = [868, 0]"] ;
84 -> 94 ;
95 [label="X[0] <= 0.434\nentropy = 0.198\nsamples = 846\nvalue = [820, 26]"] ;
71 -> 95 ;
96 [label="X[3] <= 0.708\nentropy = 0.874\nsamples = 17\nvalue = [12, 5]"] ;
95 -> 96 ;
97 [label="entropy = 0.0\nsamples = 11\nvalue = [11, 0]"] ;
96 -> 97 ;
98 [label="X[3] <= 0.834\nentropy = 0.65\nsamples = 6\nvalue = [1, 5]"] ;
96 -> 98 ;
99 [label="entropy = 0.0\nsamples = 5\nvalue = [0, 5]"] ;
98 -> 99 ;
100 [label="entropy = 0.0\nsamples = 1\nvalue = [1, 0]"] ;
98 -> 100 ;
101 [label="X[0] <= 0.896\nentropy = 0.17\nsamples = 829\nvalue = [808, 21]"] ;
95 -> 101 ;
102 [label="X[1] <= 0.898\nentropy = 0.2\nsamples = 675\nvalue = [654, 21]"] ;
101 -> 102 ;
103 [label="X[1] <= 0.695\nentropy = 0.223\nsamples = 586\nvalue = [565, 21]"] ;
102 -> 103 ;
104 [label="X[3] <= 0.829\nentropy = 0.136\nsamples = 421\nvalue = [413, 8]"] ;
103 -> 104 ;
105 [label="entropy = 0.11\nsamples = 412\nvalue = [406, 6]"] ;
104 -> 105 ;
106 [label="entropy = 0.764\nsamples = 9\nvalue = [7, 2]"] ;
104 -> 106 ;
107 [label="X[3] <= 0.717\nentropy = 0.398\nsamples = 165\nvalue = [152, 13]"] ;
103 -> 107 ;
108 [label="entropy = 0.464\nsamples = 132\nvalue = [119, 13]"] ;
107 -> 108 ;
109 [label="entropy = 0.0\nsamples = 33\nvalue = [33, 0]"] ;
107 -> 109 ;
110 [label="entropy = 0.0\nsamples = 89\nvalue = [89, 0]"] ;
102 -> 110 ;
111 [label="entropy = 0.0\nsamples = 154\nvalue = [154, 0]"] ;
101 -> 111 ;
112 [label="X[0] <= 0.802\nentropy = 0.544\nsamples = 104\nvalue = [91, 13]"] ;
70 -> 112 ;
113 [label="X[2] <= 0.9\nentropy = 0.681\nsamples = 72\nvalue = [59, 13]"] ;
112 -> 113 ;
114 [label="X[1] <= 0.406\nentropy = 0.627\nsamples = 70\nvalue = [59, 11]"] ;
113 -> 114 ;
115 [label="entropy = 0.0\nsamples = 27\nvalue = [27, 0]"] ;
114 -> 115 ;
116 [label="X[5] <= 0.5\nentropy = 0.82\nsamples = 43\nvalue = [32, 11]"] ;
114 -> 116 ;
117 [label="entropy = 0.0\nsamples = 10\nvalue = [10, 0]"] ;
116 -> 117 ;
118 [label="X[3] <= 0.32\nentropy = 0.918\nsamples = 33\nvalue = [22, 11]"] ;
116 -> 118 ;
119 [label="X[3] <= 0.283\nentropy = 0.985\nsamples = 14\nvalue = [6, 8]"] ;
118 -> 119 ;
120 [label="entropy = 0.918\nsamples = 9\nvalue = [6, 3]"] ;
119 -> 120 ;
121 [label="entropy = 0.0\nsamples = 5\nvalue = [0, 5]"] ;
119 -> 121 ;
122 [label="X[10] <= 0.5\nentropy = 0.629\nsamples = 19\nvalue = [16, 3]"] ;
118 -> 122 ;
123 [label="entropy = 0.0\nsamples = 10\nvalue = [10, 0]"] ;
122 -> 123 ;
124 [label="entropy = 0.918\nsamples = 9\nvalue = [6, 3]"] ;
122 -> 124 ;
125 [label="entropy = 0.0\nsamples = 2\nvalue = [0, 2]"] ;
113 -> 125 ;
126 [label="entropy = 0.0\nsamples = 32\nvalue = [32, 0]"] ;
112 -> 126 ;
127 [label="entropy = 0.0\nsamples = 6\nvalue = [0, 6]"] ;
69 -> 127 ;
128 [label="X[1] <= 0.695\nentropy = 0.993\nsamples = 1313\nvalue = [722, 591]"] ;
68 -> 128 ;
129 [label="X[4] <= 0.562\nentropy = 0.22\nsamples = 512\nvalue = [494, 18]"] ;
128 -> 129 ;
130 [label="X[3] <= 0.825\nentropy = 0.328\nsamples = 299\nvalue = [281, 18]"] ;
129 -> 130 ;
131 [label="X[9] <= 0.5\nentropy = 0.254\nsamples = 282\nvalue = [270, 12]"] ;
130 -> 131 ;
132 [label="X[5] <= 0.5\nentropy = 0.187\nsamples = 246\nvalue = [239, 7]"] ;
131 -> 132 ;
133 [label="entropy = 0.0\nsamples = 57\nvalue = [57, 0]"] ;
132 -> 133 ;
134 [label="X[3] <= 0.465\nentropy = 0.229\nsamples = 189\nvalue = [182, 7]"] ;
132 -> 134 ;
135 [label="X[3] <= 0.166\nentropy = 0.325\nsamples = 101\nvalue = [95, 6]"] ;
134 -> 135 ;
136 [label="entropy = 0.0\nsamples = 33\nvalue = [33, 0]"] ;
135 -> 136 ;
137 [label="X[1] <= 0.18\nentropy = 0.431\nsamples = 68\nvalue = [62, 6]"] ;
135 -> 137 ;
138 [label="entropy = 0.0\nsamples = 18\nvalue = [18, 0]"] ;
137 -> 138 ;
139 [label="entropy = 0.529\nsamples = 50\nvalue = [44, 6]"] ;
137 -> 139 ;
140 [label="X[2] <= 0.3\nentropy = 0.09\nsamples = 88\nvalue = [87, 1]"] ;
134 -> 140 ;
141 [label="X[1] <= 0.508\nentropy = 0.229\nsamples = 27\nvalue = [26, 1]"] ;
140 -> 141 ;
142 [label="entropy = 0.0\nsamples = 22\nvalue = [22, 0]"] ;
141 -> 142 ;
143 [label="entropy = 0.722\nsamples = 5\nvalue = [4, 1]"] ;
141 -> 143 ;
144 [label="entropy = 0.0\nsamples = 61\nvalue = [61, 0]"] ;
140 -> 144 ;
145 [label="X[1] <= 0.344\nentropy = 0.581\nsamples = 36\nvalue = [31, 5]"] ;
131 -> 145 ;
146 [label="X[1] <= 0.32\nentropy = 0.811\nsamples = 20\nvalue = [15, 5]"] ;
145 -> 146 ;
147 [label="X[2] <= 0.3\nentropy = 0.523\nsamples = 17\nvalue = [15, 2]"] ;
146 -> 147 ;
148 [label="X[3] <= 0.678\nentropy = 1.0\nsamples = 4\nvalue = [2, 2]"] ;
147 -> 148 ;
149 [label="entropy = 0.0\nsamples = 2\nvalue = [2, 0]"] ;
148 -> 149 ;
150 [label="entropy = 0.0\nsamples = 2\nvalue = [0, 2]"] ;
148 -> 150 ;
151 [label="entropy = 0.0\nsamples = 13\nvalue = [13, 0]"] ;
147 -> 151 ;
152 [label="entropy = 0.0\nsamples = 3\nvalue = [0, 3]"] ;
146 -> 152 ;
153 [label="entropy = 0.0\nsamples = 16\nvalue = [16, 0]"] ;
145 -> 153 ;
154 [label="X[3] <= 0.869\nentropy = 0.937\nsamples = 17\nvalue = [11, 6]"] ;
130 -> 154 ;
155 [label="X[0] <= 0.505\nentropy = 0.971\nsamples = 10\nvalue = [4, 6]"] ;
154 -> 155 ;
156 [label="X[3] <= 0.85\nentropy = 0.722\nsamples = 5\nvalue = [4, 1]"] ;
155 -> 156 ;
157 [label="entropy = 0.0\nsamples = 4\nvalue = [4, 0]"] ;
156 -> 157 ;
158 [label="entropy = 0.0\nsamples = 1\nvalue = [0, 1]"] ;
156 -> 158 ;
159 [label="entropy = 0.0\nsamples = 5\nvalue = [0, 5]"] ;
155 -> 159 ;
160 [label="entropy = 0.0\nsamples = 7\nvalue = [7, 0]"] ;
154 -> 160 ;
161 [label="entropy = 0.0\nsamples = 213\nvalue = [213, 0]"] ;
129 -> 161 ;
162 [label="X[3] <= 0.549\nentropy = 0.862\nsamples = 801\nvalue = [228, 573]"] ;
128 -> 162 ;
163 [label="X[4] <= 0.438\nentropy = 0.362\nsamples = 145\nvalue = [135, 10]"] ;
162 -> 163 ;
164 [label="X[3] <= 0.227\nentropy = 0.759\nsamples = 41\nvalue = [32, 9]"] ;
163 -> 164 ;
165 [label="entropy = 0.0\nsamples = 17\nvalue = [17, 0]"] ;
164 -> 165 ;
166 [label="X[2] <= 0.3\nentropy = 0.954\nsamples = 24\nvalue = [15, 9]"] ;
164 -> 166 ;
167 [label="X[10] <= 0.5\nentropy = 0.918\nsamples = 12\nvalue = [4, 8]"] ;
166 -> 167 ;
168 [label="entropy = 0.0\nsamples = 3\nvalue = [3, 0]"] ;
167 -> 168 ;
169 [label="X[3] <= 0.322\nentropy = 0.503\nsamples = 9\nvalue = [1, 8]"] ;
167 -> 169 ;
170 [label="entropy = 0.0\nsamples = 6\nvalue = [0, 6]"] ;
169 -> 170 ;
171 [label="X[3] <= 0.367\nentropy = 0.918\nsamples = 3\nvalue = [1, 2]"] ;
169 -> 171 ;
172 [label="entropy = 0.0\nsamples = 1\nvalue = [1, 0]"] ;
171 -> 172 ;
173 [label="entropy = 0.0\nsamples = 2\nvalue = [0, 2]"] ;
171 -> 173 ;
174 [label="X[3] <= 0.512\nentropy = 0.414\nsamples = 12\nvalue = [11, 1]"] ;
166 -> 174 ;
175 [label="entropy = 0.0\nsamples = 11\nvalue = [11, 0]"] ;
174 -> 175 ;
176 [label="entropy = 0.0\nsamples = 1\nvalue = [0, 1]"] ;
174 -> 176 ;
177 [label="X[2] <= 0.7\nentropy = 0.078\nsamples = 104\nvalue = [103, 1]"] ;
163 -> 177 ;
178 [label="entropy = 0.0\nsamples = 97\nvalue = [97, 0]"] ;
177 -> 178 ;
179 [label="X[0] <= 0.544\nentropy = 0.592\nsamples = 7\nvalue = [6, 1]"] ;
177 -> 179 ;
180 [label="entropy = 0.0\nsamples = 1\nvalue = [0, 1]"] ;
179 -> 180 ;
181 [label="entropy = 0.0\nsamples = 6\nvalue = [6, 0]"] ;
179 -> 181 ;
182 [label="X[4] <= 0.562\nentropy = 0.589\nsamples = 656\nvalue = [93, 563]"] ;
162 -> 182 ;
183 [label="X[2] <= 0.3\nentropy = 0.418\nsamples = 615\nvalue = [52, 563]"] ;
182 -> 183 ;
184 [label="X[0] <= 0.571\nentropy = 0.722\nsamples = 25\nvalue = [20, 5]"] ;
183 -> 184 ;
185 [label="X[11] <= 0.5\nentropy = 0.991\nsamples = 9\nvalue = [4, 5]"] ;
184 -> 185 ;
186 [label="entropy = 0.0\nsamples = 5\nvalue = [0, 5]"] ;
185 -> 186 ;
187 [label="entropy = 0.0\nsamples = 4\nvalue = [4, 0]"] ;
185 -> 187 ;
188 [label="entropy = 0.0\nsamples = 16\nvalue = [16, 0]"] ;
184 -> 188 ;
189 [label="X[0] <= 0.676\nentropy = 0.304\nsamples = 590\nvalue = [32, 558]"] ;
183 -> 189 ;
190 [label="X[4] <= 0.438\nentropy = 0.65\nsamples = 18\nvalue = [15, 3]"] ;
189 -> 190 ;
191 [label="X[2] <= 0.5\nentropy = 0.811\nsamples = 12\nvalue = [9, 3]"] ;
190 -> 191 ;
192 [label="entropy = 0.0\nsamples = 4\nvalue = [4, 0]"] ;
191 -> 192 ;
193 [label="X[0] <= 0.637\nentropy = 0.954\nsamples = 8\nvalue = [5, 3]"] ;
191 -> 193 ;
194 [label="entropy = 1.0\nsamples = 6\nvalue = [3, 3]"] ;
193 -> 194 ;
195 [label="entropy = 0.0\nsamples = 2\nvalue = [2, 0]"] ;
193 -> 195 ;
196 [label="entropy = 0.0\nsamples = 6\nvalue = [6, 0]"] ;
190 -> 196 ;
197 [label="X[2] <= 0.7\nentropy = 0.193\nsamples = 572\nvalue = [17, 555]"] ;
189 -> 197 ;
198 [label="X[0] <= 0.918\nentropy = 0.148\nsamples = 566\nvalue = [12, 554]"] ;
197 -> 198 ;
199 [label="X[1] <= 0.961\nentropy = 0.118\nsamples = 563\nvalue = [9, 554]"] ;
198 -> 199 ;
200 [label="entropy = 0.158\nsamples = 390\nvalue = [9, 381]"] ;
199 -> 200 ;
201 [label="entropy = 0.0\nsamples = 173\nvalue = [0, 173]"] ;
199 -> 201 ;
202 [label="entropy = 0.0\nsamples = 3\nvalue = [3, 0]"] ;
198 -> 202 ;
203 [label="X[3] <= 0.874\nentropy = 0.65\nsamples = 6\nvalue = [5, 1]"] ;
197 -> 203 ;
204 [label="entropy = 0.0\nsamples = 5\nvalue = [5, 0]"] ;
203 -> 204 ;
205 [label="entropy = 0.0\nsamples = 1\nvalue = [0, 1]"] ;
203 -> 205 ;
206 [label="entropy = 0.0\nsamples = 41\nvalue = [41, 0]"] ;
182 -> 206 ;
}