digraph Tree {
node [shape=box] ;
0 [label="X[0] <= 0.412\ngini = 0.365\nsamples = 8000\nvalue = [6079, 1921]"] ;
1 [label="X[2] <= 0.1\ngini = 0.479\nsamples = 2252\nvalue = [893, 1359]"] ;
0 -> 1 [labeldistance=2.5, labelangle=45, headlabel="True"] ;
2 [label="X[1] <= 0.336\ngini = 0.222\nsamples = 946\nvalue = [120, 826]"] ;
1 -> 2 ;
3 [label="X[1] <= 0.133\ngini = 0.11\nsamples = 874\nvalue = [51, 823]"] ;
2 -> 3 ;
4 [label="gini = 0.0\nsamples = 21\nvalue = [21, 0]"] ;
3 -> 4 ;
5 [label="X[3] <= 0.308\ngini = 0.068\nsamples = 853\nvalue = [30, 823]"] ;
3 -> 5 ;
6 [label="X[3] <= 0.138\ngini = 0.038\nsamples = 836\nvalue = [16, 820]"] ;
5 -> 6 ;
7 [label="gini = 0.0\nsamples = 9\nvalue = [9, 0]"] ;
6 -> 7 ;
8 [label="X[0] <= 0.275\ngini = 0.017\nsamples = 827\nvalue = [7, 820]"] ;
6 -> 8 ;
9 [label="X[3] <= 0.206\ngini = 0.278\nsamples = 6\nvalue = [5, 1]"] ;
8 -> 9 ;
10 [label="gini = 0.0\nsamples = 1\nvalue = [0, 1]"] ;
9 -> 10 ;
11 [label="gini = 0.0\nsamples = 5\nvalue = [5, 0]"] ;
9 -> 11 ;
12 [label="X[1] <= 0.32\ngini = 0.005\nsamples = 821\nvalue = [2, 819]"] ;
8 -> 12 ;
13 [label="X[3] <= 0.255\ngini = 0.003\nsamples = 752\nvalue = [1, 751]"] ;
12 -> 13 ;
14 [label="gini = 0.0\nsamples = 524\nvalue = [0, 524]"] ;
13 -> 14 ;
15 [label="X[3] <= 0.259\ngini = 0.009\nsamples = 228\nvalue = [1, 227]"] ;
13 -> 15 ;
16 [label="gini = 0.064\nsamples = 30\nvalue = [1, 29]"] ;
15 -> 16 ;
17 [label="gini = 0.0\nsamples = 198\nvalue = [0, 198]"] ;
15 -> 17 ;
18 [label="X[3] <= 0.171\ngini = 0.029\nsamples = 69\nvalue = [1, 68]"] ;
12 -> 18 ;
19 [label="X[3] <= 0.166\ngini = 0.198\nsamples = 9\nvalue = [1, 8]"] ;
18 -> 19 ;
20 [label="gini = 0.0\nsamples = 8\nvalue = [0, 8]"] ;
19 -> 20 ;
21 [label="gini = 0.0\nsamples = 1\nvalue = [1, 0]"] ;
19 -> 21 ;
22 [label="gini = 0.0\nsamples = 60\nvalue = [0, 60]"] ;
18 -> 22 ;
23 [label="X[0] <= 0.033\ngini = 0.291\nsamples = 17\nvalue = [14, 3]"] ;
5 -> 23 ;
24 [label="gini = 0.0\nsamples = 2\nvalue = [0, 2]"] ;
23 -> 24 ;
25 [label="X[0] <= 0.225\ngini = 0.124\nsamples = 15\nvalue = [14, 1]"] ;
23 -> 25 ;
26 [label="X[11] <= 0.5\ngini = 0.444\nsamples = 3\nvalue = [2, 1]"] ;
25 -> 26 ;
27 [label="gini = 0.0\nsamples = 2\nvalue = [2, 0]"] ;
26 -> 27 ;
28 [label="gini = 0.0\nsamples = 1\nvalue = [0, 1]"] ;
26 -> 28 ;
29 [label="gini = 0.0\nsamples = 12\nvalue = [12, 0]"] ;
25 -> 29 ;
30 [label="X[3] <= 0.846\ngini = 0.08\nsamples = 72\nvalue = [69, 3]"] ;
2 -> 30 ;
31 [label="X[3] <= 0.259\ngini = 0.028\nsamples = 70\nvalue = [69, 1]"] ;
30 -> 31 ;
32 [label="X[3] <= 0.252\ngini = 0.091\nsamples = 21\nvalue = [20, 1]"] ;
31 -> 32 ;
33 [label="gini = 0.0\nsamples = 19\nvalue = [19, 0]"] ;
32 -> 33 ;
34 [label="X[4] <= 0.188\ngini = 0.5\nsamples = 2\nvalue = [1, 1]"] ;
32 -> 34 ;
35 [label="gini = 0.0\nsamples = 1\nvalue = [1, 0]"] ;
34 -> 35 ;
36 [label="gini = 0.0\nsamples = 1\nvalue = [0, 1]"] ;
34 -> 36 ;
37 [label="gini = 0.0\nsamples = 49\nvalue = [49, 0]"] ;
31 -> 37 ;
38 [label="gini = 0.0\nsamples = 2\nvalue = [0, 2]"] ;
30 -> 38 ;
39 [label="X[0] <= 0.027\ngini = 0.483\nsamples = 1306\nvalue = [773, 533]"] ;
1 -> 39 ;
40 [label="gini = 0.0\nsamples = 471\nvalue = [0, 471]"] ;
39 -> 40 ;
41 [label="X[2] <= 0.9\ngini = 0.137\nsamples = 835\nvalue = [773, 62]"] ;
39 -> 41 ;
42 [label="X[3] <= 0.902\ngini = 0.122\nsamples = 827\nvalue = [773, 54]"] ;
41 -> 42 ;
43 [label="X[1] <= 0.977\ngini = 0.118\nsamples = 825\nvalue = [773, 52]"] ;
42 -> 43 ;
44 [label="X[0] <= 0.236\ngini = 0.106\nsamples = 804\nvalue = [759, 45]"] ;
43 -> 44 ;
45 [label="X[0] <= 0.06\ngini = 0.071\nsamples = 517\nvalue = [498, 19]"] ;
44 -> 45 ;
46 [label="X[4] <= 0.062\ngini = 0.193\nsamples = 83\nvalue = [74, 9]"] ;
45 -> 46 ;
47 [label="X[3] <= 0.154\ngini = 0.408\nsamples = 7\nvalue = [2, 5]"] ;
46 -> 47 ;
48 [label="gini = 0.0\nsamples = 2\nvalue = [2, 0]"] ;
47 -> 48 ;
49 [label="gini = 0.0\nsamples = 5\nvalue = [0, 5]"] ;
47 -> 49 ;
50 [label="X[5] <= 0.5\ngini = 0.1\nsamples = 76\nvalue = [72, 4]"] ;
46 -> 50 ;
51 [label="gini = 0.32\nsamples = 15\nvalue = [12, 3]"] ;
50 -> 51 ;
52 [label="gini = 0.032\nsamples = 61\nvalue = [60, 1]"] ;
50 -> 52 ;
53 [label="X[1] <= 0.164\ngini = 0.045\nsamples = 434\nvalue = [424, 10]"] ;
45 -> 53 ;
54 [label="X[1] <= 0.133\ngini = 0.184\nsamples = 39\nvalue = [35, 4]"] ;
53 -> 54 ;
55 [label="gini = 0.0\nsamples = 29\nvalue = [29, 0]"] ;
54 -> 55 ;
56 [label="gini = 0.48\nsamples = 10\nvalue = [6, 4]"] ;
54 -> 56 ;
57 [label="X[0] <= 0.093\ngini = 0.03\nsamples = 395\nvalue = [389, 6]"] ;
53 -> 57 ;
58 [label="gini = 0.073\nsamples = 105\nvalue = [101, 4]"] ;
57 -> 58 ;
59 [label="gini = 0.014\nsamples = 290\nvalue = [288, 2]"] ;
57 -> 59 ;
60 [label="X[0] <= 0.258\ngini = 0.165\nsamples = 287\nvalue = [261, 26]"] ;
44 -> 60 ;
61 [label="X[2] <= 0.3\ngini = 0.381\nsamples = 43\nvalue = [32, 11]"] ;
60 -> 61 ;
62 [label="gini = 0.0\nsamples = 10\nvalue = [10, 0]"] ;
61 -> 62 ;
63 [label="X[3] <= 0.131\ngini = 0.444\nsamples = 33\nvalue = [22, 11]"] ;
61 -> 63 ;
64 [label="gini = 0.0\nsamples = 6\nvalue = [6, 0]"] ;
63 -> 64 ;
65 [label="gini = 0.483\nsamples = 27\nvalue = [16, 11]"] ;
63 -> 65 ;
66 [label="X[1] <= 0.258\ngini = 0.115\nsamples = 244\nvalue = [229, 15]"] ;
60 -> 66 ;
67 [label="gini = 0.0\nsamples = 78\nvalue = [78, 0]"] ;
66 -> 67 ;
68 [label="X[1] <= 0.273\ngini = 0.164\nsamples = 166\nvalue = [151, 15]"] ;
66 -> 68 ;
69 [label="gini = 0.444\nsamples = 3\nvalue = [1, 2]"] ;
68 -> 69 ;
70 [label="gini = 0.147\nsamples = 163\nvalue = [150, 13]"] ;
68 -> 70 ;
71 [label="X[2] <= 0.5\ngini = 0.444\nsamples = 21\nvalue = [14, 7]"] ;
43 -> 71 ;
72 [label="X[3] <= 0.439\ngini = 0.496\nsamples = 11\nvalue = [5, 6]"] ;
71 -> 72 ;
73 [label="gini = 0.0\nsamples = 4\nvalue = [4, 0]"] ;
72 -> 73 ;
74 [label="X[3] <= 0.703\ngini = 0.245\nsamples = 7\nvalue = [1, 6]"] ;
72 -> 74 ;
75 [label="gini = 0.0\nsamples = 6\nvalue = [0, 6]"] ;
74 -> 75 ;
76 [label="gini = 0.0\nsamples = 1\nvalue = [1, 0]"] ;
74 -> 76 ;
77 [label="X[3] <= 0.224\ngini = 0.18\nsamples = 10\nvalue = [9, 1]"] ;
71 -> 77 ;
78 [label="gini = 0.0\nsamples = 1\nvalue = [0, 1]"] ;
77 -> 78 ;
79 [label="gini = 0.0\nsamples = 9\nvalue = [9, 0]"] ;
77 -> 79 ;
80 [label="gini = 0.0\nsamples = 2\nvalue = [0, 2]"] ;
42 -> 80 ;
81 [label="gini = 0.0\nsamples = 8\nvalue = [0, 8]"] ;
41 -> 81 ;
82 [label="X[4] <= 0.312\ngini = 0.176\nsamples = 5748\nvalue = [5186, 562]"] ;
0 -> 82 [labeldistance=2.5, labelangle=-45, headlabel="False"] ;
83 [label="X[3] <= 0.909\ngini = 0.03\nsamples = 4712\nvalue = [4640, 72]"] ;
82 -> 83 ;
84 [label="X[2] <= 0.9\ngini = 0.028\nsamples = 4707\nvalue = [4640, 67]"] ;
83 -> 84 ;
85 [label="X[2] <= 0.7\ngini = 0.027\nsamples = 4704\nvalue = [4640, 64]"] ;
84 -> 85 ;
86 [label="X[0] <= 0.434\ngini = 0.023\nsamples = 4610\nvalue = [4556, 54]"] ;
85 -> 86 ;
87 [label="X[2] <= 0.1\ngini = 0.149\nsamples = 74\nvalue = [68, 6]"] ;
86 -> 87 ;
88 [label="X[1] <= 0.602\ngini = 0.42\nsamples = 10\nvalue = [7, 3]"] ;
87 -> 88 ;
89 [label="gini = 0.0\nsamples = 7\nvalue = [7, 0]"] ;
88 -> 89 ;
90 [label="gini = 0.0\nsamples = 3\nvalue = [0, 3]"] ;
88 -> 90 ;
91 [label="X[0] <= 0.423\ngini = 0.089\nsamples = 64\nvalue = [61, 3]"] ;
87 -> 91 ;
92 [label="X[3] <= 0.72\ngini = 0.298\nsamples = 11\nvalue = [9, 2]"] ;
91 -> 92 ;
93 [label="X[1] <= 0.57\ngini = 0.18\nsamples = 10\nvalue = [9, 1]"] ;
92 -> 93 ;
94 [label="gini = 0.0\nsamples = 8\nvalue = [8, 0]"] ;
93 -> 94 ;
95 [label="gini = 0.5\nsamples = 2\nvalue = [1, 1]"] ;
93 -> 95 ;
96 [label="gini = 0.0\nsamples = 1\nvalue = [0, 1]"] ;
92 -> 96 ;
97 [label="X[1] <= 0.805\ngini = 0.037\nsamples = 53\nvalue = [52, 1]"] ;
91 -> 97 ;
98 [label="gini = 0.0\nsamples = 44\nvalue = [44, 0]"] ;
97 -> 98 ;
99 [label="X[1] <= 0.82\ngini = 0.198\nsamples = 9\nvalue = [8, 1]"] ;
97 -> 99 ;
100 [label="gini = 0.0\nsamples = 1\nvalue = [0, 1]"] ;
99 -> 100 ;
101 [label="gini = 0.0\nsamples = 8\nvalue = [8, 0]"] ;
99 -> 101 ;
102 [label="X[4] <= 0.188\ngini = 0.021\nsamples = 4536\nvalue = [4488, 48]"] ;
86 -> 102 ;
103 [label="X[3] <= 0.834\ngini = 0.013\nsamples = 3840\nvalue = [3814, 26]"] ;
102 -> 103 ;
104 [label="X[0] <= 0.852\ngini = 0.013\nsamples = 3804\nvalue = [3780, 24]"] ;
103 -> 104 ;
105 [label="X[3] <= 0.558\ngini = 0.016\nsamples = 2890\nvalue = [2866, 24]"] ;
104 -> 105 ;
106 [label="gini = 0.01\nsamples = 1718\nvalue = [1709, 9]"] ;
105 -> 106 ;
107 [label="gini = 0.025\nsamples = 1172\nvalue = [1157, 15]"] ;
105 -> 107 ;
108 [label="gini = 0.0\nsamples = 914\nvalue = [914, 0]"] ;
104 -> 108 ;
109 [label="X[1] <= 0.883\ngini = 0.105\nsamples = 36\nvalue = [34, 2]"] ;
103 -> 109 ;
110 [label="gini = 0.0\nsamples = 30\nvalue = [30, 0]"] ;
109 -> 110 ;
111 [label="X[0] <= 0.665\ngini = 0.444\nsamples = 6\nvalue = [4, 2]"] ;
109 -> 111 ;
112 [label="gini = 0.0\nsamples = 3\nvalue = [3, 0]"] ;
111 -> 112 ;
113 [label="gini = 0.444\nsamples = 3\nvalue = [1, 2]"] ;
111 -> 113 ;
114 [label="X[1] <= 0.586\ngini = 0.061\nsamples = 696\nvalue = [674, 22]"] ;
102 -> 114 ;
115 [label="X[2] <= 0.1\ngini = 0.034\nsamples = 352\nvalue = [346, 6]"] ;
114 -> 115 ;
116 [label="X[3] <= 0.778\ngini = 0.133\nsamples = 28\nvalue = [26, 2]"] ;
115 -> 116 ;
117 [label="gini = 0.0\nsamples = 24\nvalue = [24, 0]"] ;
116 -> 117 ;
118 [label="gini = 0.5\nsamples = 4\nvalue = [2, 2]"] ;
116 -> 118 ;
119 [label="X[0] <= 0.577\ngini = 0.024\nsamples = 324\nvalue = [320, 4]"] ;
115 -> 119 ;
120 [label="gini = 0.065\nsamples = 89\nvalue = [86, 3]"] ;
119 -> 120 ;
121 [label="gini = 0.008\nsamples = 235\nvalue = [234, 1]"] ;
119 -> 121 ;
122 [label="X[1] <= 0.898\ngini = 0.089\nsamples = 344\nvalue = [328, 16]"] ;
114 -> 122 ;
123 [label="X[0] <= 0.896\ngini = 0.114\nsamples = 263\nvalue = [247, 16]"] ;
122 -> 123 ;
124 [label="gini = 0.14\nsamples = 211\nvalue = [195, 16]"] ;
123 -> 124 ;
125 [label="gini = 0.0\nsamples = 52\nvalue = [52, 0]"] ;
123 -> 125 ;
126 [label="gini = 0.0\nsamples = 81\nvalue = [81, 0]"] ;
122 -> 126 ;
127 [label="X[1] <= 0.992\ngini = 0.19\nsamples = 94\nvalue = [84, 10]"] ;
85 -> 127 ;
128 [label="X[1] <= 0.414\ngini = 0.175\nsamples = 93\nvalue = [84, 9]"] ;
127 -> 128 ;
129 [label="gini = 0.0\nsamples = 38\nvalue = [38, 0]"] ;
128 -> 129 ;
130 [label="X[1] <= 0.43\ngini = 0.274\nsamples = 55\nvalue = [46, 9]"] ;
128 -> 130 ;
131 [label="gini = 0.0\nsamples = 1\nvalue = [0, 1]"] ;
130 -> 131 ;
132 [label="X[3] <= 0.308\ngini = 0.252\nsamples = 54\nvalue = [46, 8]"] ;
130 -> 132 ;
133 [label="X[3] <= 0.278\ngini = 0.43\nsamples = 16\nvalue = [11, 5]"] ;
132 -> 133 ;
134 [label="gini = 0.153\nsamples = 12\nvalue = [11, 1]"] ;
133 -> 134 ;
135 [label="gini = 0.0\nsamples = 4\nvalue = [0, 4]"] ;
133 -> 135 ;
136 [label="X[4] <= 0.062\ngini = 0.145\nsamples = 38\nvalue = [35, 3]"] ;
132 -> 136 ;
137 [label="gini = 0.42\nsamples = 10\nvalue = [7, 3]"] ;
136 -> 137 ;
138 [label="gini = 0.0\nsamples = 28\nvalue = [28, 0]"] ;
136 -> 138 ;
139 [label="gini = 0.0\nsamples = 1\nvalue = [0, 1]"] ;
127 -> 139 ;
140 [label="gini = 0.0\nsamples = 3\nvalue = [0, 3]"] ;
84 -> 140 ;
141 [label="gini = 0.0\nsamples = 5\nvalue = [0, 5]"] ;
83 -> 141 ;
142 [label="X[1] <= 0.711\ngini = 0.499\nsamples = 1036\nvalue = [546, 490]"] ;
82 -> 142 ;
143 [label="X[1] <= 0.695\ngini = 0.105\nsamples = 394\nvalue = [372, 22]"] ;
142 -> 143 ;
144 [label="X[3] <= 0.825\ngini = 0.086\nsamples = 377\nvalue = [360, 17]"] ;
143 -> 144 ;
145 [label="X[4] <= 0.438\ngini = 0.07\nsamples = 360\nvalue = [347, 13]"] ;
144 -> 145 ;
146 [label="X[3] <= 0.741\ngini = 0.161\nsamples = 125\nvalue = [114, 11]"] ;
145 -> 146 ;
147 [label="X[0] <= 0.621\ngini = 0.128\nsamples = 116\nvalue = [108, 8]"] ;
146 -> 147 ;
148 [label="gini = 0.0\nsamples = 39\nvalue = [39, 0]"] ;
147 -> 148 ;
149 [label="X[0] <= 0.665\ngini = 0.186\nsamples = 77\nvalue = [69, 8]"] ;
147 -> 149 ;
150 [label="X[1] <= 0.266\ngini = 0.494\nsamples = 9\nvalue = [5, 4]"] ;
149 -> 150 ;
151 [label="gini = 0.0\nsamples = 4\nvalue = [4, 0]"] ;
150 -> 151 ;
152 [label="gini = 0.32\nsamples = 5\nvalue = [1, 4]"] ;
150 -> 152 ;
153 [label="X[3] <= 0.713\ngini = 0.111\nsamples = 68\nvalue = [64, 4]"] ;
149 -> 153 ;
154 [label="gini = 0.064\nsamples = 60\nvalue = [58, 2]"] ;
153 -> 154 ;
155 [label="gini = 0.375\nsamples = 8\nvalue = [6, 2]"] ;
153 -> 155 ;
156 [label="X[0] <= 0.736\ngini = 0.444\nsamples = 9\nvalue = [6, 3]"] ;
146 -> 156 ;
157 [label="gini = 0.0\nsamples = 5\nvalue = [5, 0]"] ;
156 -> 157 ;
158 [label="X[3] <= 0.769\ngini = 0.375\nsamples = 4\nvalue = [1, 3]"] ;
156 -> 158 ;
159 [label="gini = 0.0\nsamples = 3\nvalue = [0, 3]"] ;
158 -> 159 ;
160 [label="gini = 0.0\nsamples = 1\nvalue = [1, 0]"] ;
158 -> 160 ;
161 [label="X[2] <= 0.5\ngini = 0.017\nsamples = 235\nvalue = [233, 2]"] ;
145 -> 161 ;
162 [label="gini = 0.0\nsamples = 179\nvalue = [179, 0]"] ;
161 -> 162 ;
163 [label="X[1] <= 0.445\ngini = 0.069\nsamples = 56\nvalue = [54, 2]"] ;
161 -> 163 ;
164 [label="gini = 0.0\nsamples = 36\nvalue = [36, 0]"] ;
163 -> 164 ;
165 [label="X[1] <= 0.461\ngini = 0.18\nsamples = 20\nvalue = [18, 2]"] ;
163 -> 165 ;
166 [label="gini = 0.0\nsamples = 2\nvalue = [0, 2]"] ;
165 -> 166 ;
167 [label="gini = 0.0\nsamples = 18\nvalue = [18, 0]"] ;
165 -> 167 ;
168 [label="X[0] <= 0.533\ngini = 0.36\nsamples = 17\nvalue = [13, 4]"] ;
144 -> 168 ;
169 [label="X[0] <= 0.456\ngini = 0.49\nsamples = 7\nvalue = [3, 4]"] ;
168 -> 169 ;
170 [label="gini = 0.0\nsamples = 3\nvalue = [3, 0]"] ;
169 -> 170 ;
171 [label="gini = 0.0\nsamples = 4\nvalue = [0, 4]"] ;
169 -> 171 ;
172 [label="gini = 0.0\nsamples = 10\nvalue = [10, 0]"] ;
168 -> 172 ;
173 [label="X[4] <= 0.438\ngini = 0.415\nsamples = 17\nvalue = [12, 5]"] ;
143 -> 173 ;
174 [label="X[2] <= 0.7\ngini = 0.494\nsamples = 9\nvalue = [4, 5]"] ;
173 -> 174 ;
175 [label="X[3] <= 0.512\ngini = 0.408\nsamples = 7\nvalue = [2, 5]"] ;
174 -> 175 ;
176 [label="gini = 0.0\nsamples = 1\nvalue = [1, 0]"] ;
175 -> 176 ;
177 [label="X[0] <= 0.615\ngini = 0.278\nsamples = 6\nvalue = [1, 5]"] ;
175 -> 177 ;
178 [label="gini = 0.0\nsamples = 1\nvalue = [1, 0]"] ;
177 -> 178 ;
179 [label="gini = 0.0\nsamples = 5\nvalue = [0, 5]"] ;
177 -> 179 ;
180 [label="gini = 0.0\nsamples = 2\nvalue = [2, 0]"] ;
174 -> 180 ;
181 [label="gini = 0.0\nsamples = 8\nvalue = [8, 0]"] ;
173 -> 181 ;
182 [label="X[3] <= 0.558\ngini = 0.395\nsamples = 642\nvalue = [174, 468]"] ;
142 -> 182 ;
183 [label="X[4] <= 0.438\ngini = 0.169\nsamples = 118\nvalue = [107, 11]"] ;
182 -> 183 ;
184 [label="X[3] <= 0.285\ngini = 0.394\nsamples = 37\nvalue = [27, 10]"] ;
183 -> 184 ;
185 [label="gini = 0.0\nsamples = 19\nvalue = [19, 0]"] ;
184 -> 185 ;
186 [label="X[2] <= 0.3\ngini = 0.494\nsamples = 18\nvalue = [8, 10]"] ;
184 -> 186 ;
187 [label="X[3] <= 0.423\ngini = 0.375\nsamples = 12\nvalue = [3, 9]"] ;
186 -> 187 ;
188 [label="X[1] <= 0.82\ngini = 0.18\nsamples = 10\nvalue = [1, 9]"] ;
187 -> 188 ;
189 [label="X[0] <= 0.577\ngini = 0.444\nsamples = 3\nvalue = [1, 2]"] ;
188 -> 189 ;
190 [label="gini = 0.0\nsamples = 2\nvalue = [0, 2]"] ;
189 -> 190 ;
191 [label="gini = 0.0\nsamples = 1\nvalue = [1, 0]"] ;
189 -> 191 ;
192 [label="gini = 0.0\nsamples = 7\nvalue = [0, 7]"] ;
188 -> 192 ;
193 [label="gini = 0.0\nsamples = 2\nvalue = [2, 0]"] ;
187 -> 193 ;
194 [label="X[3] <= 0.512\ngini = 0.278\nsamples = 6\nvalue = [5, 1]"] ;
186 -> 194 ;
195 [label="gini = 0.0\nsamples = 4\nvalue = [4, 0]"] ;
194 -> 195 ;
196 [label="X[3] <= 0.528\ngini = 0.5\nsamples = 2\nvalue = [1, 1]"] ;
194 -> 196 ;
197 [label="gini = 0.0\nsamples = 1\nvalue = [0, 1]"] ;
196 -> 197 ;
198 [label="gini = 0.0\nsamples = 1\nvalue = [1, 0]"] ;
196 -> 198 ;
199 [label="X[2] <= 0.7\ngini = 0.024\nsamples = 81\nvalue = [80, 1]"] ;
183 -> 199 ;
200 [label="gini = 0.0\nsamples = 76\nvalue = [76, 0]"] ;
199 -> 200 ;
201 [label="X[0] <= 0.544\ngini = 0.32\nsamples = 5\nvalue = [4, 1]"] ;
199 -> 201 ;
202 [label="gini = 0.0\nsamples = 1\nvalue = [0, 1]"] ;
201 -> 202 ;
203 [label="gini = 0.0\nsamples = 4\nvalue = [4, 0]"] ;
201 -> 203 ;
204 [label="X[4] <= 0.562\ngini = 0.223\nsamples = 524\nvalue = [67, 457]"] ;
182 -> 204 ;
205 [label="X[2] <= 0.3\ngini = 0.154\nsamples = 499\nvalue = [42, 457]"] ;
204 -> 205 ;
206 [label="X[3] <= 0.586\ngini = 0.363\nsamples = 21\nvalue = [16, 5]"] ;
205 -> 206 ;
207 [label="gini = 0.0\nsamples = 3\nvalue = [0, 3]"] ;
206 -> 207 ;
208 [label="X[3] <= 0.939\ngini = 0.198\nsamples = 18\nvalue = [16, 2]"] ;
206 -> 208 ;
209 [label="X[0] <= 0.593\ngini = 0.111\nsamples = 17\nvalue = [16, 1]"] ;
208 -> 209 ;
210 [label="X[4] <= 0.438\ngini = 0.444\nsamples = 3\nvalue = [2, 1]"] ;
209 -> 210 ;
211 [label="gini = 0.0\nsamples = 1\nvalue = [0, 1]"] ;
210 -> 211 ;
212 [label="gini = 0.0\nsamples = 2\nvalue = [2, 0]"] ;
210 -> 212 ;
213 [label="gini = 0.0\nsamples = 14\nvalue = [14, 0]"] ;
209 -> 213 ;
214 [label="gini = 0.0\nsamples = 1\nvalue = [0, 1]"] ;
208 -> 214 ;
215 [label="X[0] <= 0.676\ngini = 0.103\nsamples = 478\nvalue = [26, 452]"] ;
205 -> 215 ;
216 [label="X[10] <= 0.5\ngini = 0.32\nsamples = 15\nvalue = [12, 3]"] ;
215 -> 216 ;
217 [label="gini = 0.0\nsamples = 10\nvalue = [10, 0]"] ;
216 -> 217 ;
218 [label="X[0] <= 0.516\ngini = 0.48\nsamples = 5\nvalue = [2, 3]"] ;
216 -> 218 ;
219 [label="gini = 0.0\nsamples = 1\nvalue = [1, 0]"] ;
218 -> 219 ;
220 [label="X[0] <= 0.637\ngini = 0.375\nsamples = 4\nvalue = [1, 3]"] ;
218 -> 220 ;
221 [label="gini = 0.0\nsamples = 3\nvalue = [0, 3]"] ;
220 -> 221 ;
222 [label="gini = 0.0\nsamples = 1\nvalue = [1, 0]"] ;
220 -> 222 ;
223 [label="X[0] <= 0.918\ngini = 0.059\nsamples = 463\nvalue = [14, 449]"] ;
215 -> 223 ;
224 [label="X[2] <= 0.7\ngini = 0.047\nsamples = 460\nvalue = [11, 449]"] ;
223 -> 224 ;
225 [label="X[3] <= 0.848\ngini = 0.043\nsamples = 457\nvalue = [10, 447]"] ;
224 -> 225 ;
226 [label="gini = 0.039\nsamples = 454\nvalue = [9, 445]"] ;
225 -> 226 ;
227 [label="gini = 0.444\nsamples = 3\nvalue = [1, 2]"] ;
225 -> 227 ;
228 [label="X[9] <= 0.5\ngini = 0.444\nsamples = 3\nvalue = [1, 2]"] ;
224 -> 228 ;
229 [label="gini = 0.0\nsamples = 2\nvalue = [0, 2]"] ;
228 -> 229 ;
230 [label="gini = 0.0\nsamples = 1\nvalue = [1, 0]"] ;
228 -> 230 ;
231 [label="gini = 0.0\nsamples = 3\nvalue = [3, 0]"] ;
223 -> 231 ;
232 [label="gini = 0.0\nsamples = 25\nvalue = [25, 0]"] ;
204 -> 232 ;
}